digraph Tree {
node [shape=box] ;
0 [label="X[2] <= 2.45\ngini = 0.667\nsamples = 149\nvalue = [49, 50, 50]"] ;
1 [label="gini = 0.0\nsamples = 49\nvalue = [49, 0, 0]"] ;
0 -> 1 [labeldistance=2.5, labelangle=45, headlabel="True"] ;
2 [label="X[0] <= 6.75\ngini = 0.5\nsamples = 100\nvalue = [0, 50, 50]"] ;
0 -> 2 [labeldistance=2.5, labelangle=-45, headlabel="False"] ;
3 [label="X[3] <= 1.9\ngini = 0.113\nsamples = 50\nvalue = [0, 47, 3]"] ;
2 -> 3 ;
4 [label="X[3] <= 1.65\ngini = 0.041\nsamples = 48\nvalue = [0, 47, 1]"] ;
3 -> 4 ;
5 [label="gini = 0.0\nsamples = 45\nvalue = [0, 45, 0]"] ;
4 -> 5 ;
6 [label="gini = 0.444\nsamples = 3\nvalue = [0, 2, 1]"] ;
4 -> 6 ;
7 [label="gini = 0.0\nsamples = 2\nvalue = [0, 0, 2]"] ;
3 -> 7 ;
8 [label="X[3] <= 1.55\ngini = 0.113\nsamples = 50\nvalue = [0, 3, 47]"] ;
2 -> 8 ;
9 [label="X[2] <= 4.95\ngini = 0.5\nsamples = 6\nvalue = [0, 3, 3]"] ;
8 -> 9 ;
10 [label="gini = 0.0\nsamples = 3\nvalue = [0, 3, 0]"] ;
9 -> 10 ;
11 [label="gini = 0.0\nsamples = 3\nvalue = [0, 0, 3]"] ;
9 -> 11 ;
12 [label="gini = 0.0\nsamples = 44\nvalue = [0, 0, 44]"] ;
8 -> 12 ;
}